 -0.356667  -0.356667  -0.356667          0 -0.08528276  0.4049953  0.4073193   0.255744 0.08722521          0 
 -0.362285  -0.362285  -0.362285          0 -0.05951849  0.4120842  0.4051281  0.2495977 0.07956359          0 
-0.3708524 -0.3708524 -0.3708524          0 -0.0164266  0.4193011  0.4011892  0.2398035 0.06868991          0 
-0.3740659 -0.3740659 -0.3740659          0 0.00665293  0.4218556  0.3973591  0.2337473 0.06258277          0 
-0.3773343 -0.3773343 -0.3773343          0 0.03848728  0.4254701  0.3904312  0.2239649 0.05364942          0 
-0.3811651 -0.3811651 -0.3811651          0 0.07009197  0.4281306  0.3844258  0.2155712 0.04527567          0 
-0.3829231 -0.3829231 -0.3829231          0 0.09617654   0.429964  0.3777794  0.2071702 0.03767922          0 
-0.3832178 -0.3832178 -0.3832178          0  0.1221923  0.4287844  0.3695031  0.1985528 0.03062086          0 
-0.3845605 -0.3845605 -0.3845605          0  0.1496601  0.4290508  0.3619045  0.1901355 0.02293074          0 
 -0.383845  -0.383845  -0.383845          0  0.1736053  0.4269787  0.3533983  0.1813147 0.01623785          0 
-0.3834776 -0.3834776 -0.3834776          0  0.2011481  0.4258308  0.3439136  0.1713249 0.008215384          0 
-0.3822921 -0.3822921 -0.3822921          0  0.2185894  0.4238037  0.3369384  0.1644468 0.003097951          0 
-0.3809247 -0.3809247 -0.3809247          0  0.2409792  0.4223992  0.3276517  0.1554089 -0.003664909          0 
-0.3795406 -0.3795406 -0.3795406          0  0.2600774  0.4202088  0.3196126  0.1480043 -0.009281331          0 
-0.3775824 -0.3775824 -0.3775824          0  0.2774089  0.4180724   0.311876  0.1404156 -0.01502559          0 
-0.3758791 -0.3758791 -0.3758791          0  0.2887949  0.4163709  0.3060143  0.1351086 -0.01865153          0 
 -0.373797  -0.373797  -0.373797          0  0.3040985  0.4140439  0.2987099  0.1282171 -0.02367842          0 
-0.3725113 -0.3725113 -0.3725113          0  0.3191789  0.4136016  0.2918876  0.1214405 -0.02857461          0 
-0.3708989 -0.3708989 -0.3708989          0  0.3313714  0.4110739  0.2860728  0.1164367 -0.03225821          0 
-0.3691364 -0.3691364 -0.3691364          0  0.3431562  0.4100674  0.2801294  0.1106177 -0.03656147          0 
-0.3679586 -0.3679586 -0.3679586          0  0.3567464  0.4082961  0.2743132  0.1049482 -0.04042819          0 
-0.3664641 -0.3664641 -0.3664641          0  0.3664376  0.4071343    0.26944  0.1003751 -0.04399477          0 
-0.3660767 -0.3660767 -0.3660767          0  0.3743048  0.4078991  0.2661299 0.09647211 -0.04657572          0 
-0.3643197 -0.3643197 -0.3643197          0  0.3838677  0.4059066  0.2610508 0.09215919 -0.0500253          0 
-0.3633908 -0.3633908 -0.3633908          0    0.39338  0.4058331  0.2569526 0.08759414 -0.05358761          0 