 0.2856507  0.2856507  0.2856507          0  0.1634132 -0.05741884 -0.0584656 0.009807278 0.08571184          0 
 0.2890907  0.2890907  0.2890907          0  0.1519579 -0.06164632 -0.0584957 0.01194906 0.08896306          0 
 0.2944041  0.2944041  0.2944041          0  0.1325036 -0.06653533 -0.05826184 0.01545856 0.09362268          0 
 0.2968496  0.2968496  0.2968496          0  0.1219436 -0.06880472 -0.05755077 0.01761415 0.09624884          0 
 0.2996741  0.2996741  0.2996741          0  0.1071836 -0.07195694 -0.05573689 0.02132307  0.1001648          0 
 0.3020985  0.3020985  0.3020985          0 0.09243359 -0.07391974 -0.05361347 0.02484042  0.1039638          0 
 0.3035851  0.3035851  0.3035851          0 0.08014584 -0.07552369 -0.05118622 0.02838137  0.1074274          0 
 0.3049158  0.3049158  0.3049158          0 0.06763233 -0.07630869 -0.04847688 0.03178207  0.1106239          0 
  0.305836   0.305836   0.305836          0 0.05462374 -0.07675708 -0.04518218 0.03559059   0.114217          0 
 0.3063401  0.3063401  0.3063401          0 0.04298355 -0.07671783 -0.04195619 0.03934136  0.1173287          0 
  0.306403   0.306403   0.306403          0 0.02984744 -0.07643807 -0.03768739 0.04395522  0.1211137          0 
 0.3062314  0.3062314  0.3062314          0 0.02137436 -0.07591058 -0.03473077 0.04704147  0.1235314          0 
  0.305629   0.305629   0.305629          0 0.01073112 -0.07529566 -0.03036774 0.05130732  0.1267378          0 
 0.3049485  0.3049485  0.3049485          0 0.001691569 -0.07423024 -0.02653536 0.05482791  0.1294005          0 
  0.303959   0.303959   0.303959          0 -0.006480719 -0.07314959 -0.02281675 0.05844864  0.1321215          0 
 0.3031946  0.3031946  0.3031946          0 -0.01191028 -0.07239078 -0.02007352  0.0609485  0.1338422          0 
  0.302021   0.302021   0.302021          0 -0.0190135 -0.07108089 -0.01646159 0.06427955  0.1362135          0 
 0.3006519  0.3006519  0.3006519          0 -0.02550383 -0.07002739 -0.01263503 0.06773663  0.1384739          0 
 0.2995933  0.2995933  0.2995933          0 -0.03098652 -0.0685049 -0.009663106 0.07018973  0.1401849          0 
 0.2981974  0.2981974  0.2981974          0 -0.03600762 -0.06740209 -0.00643565 0.07309859  0.1421545          0 
 0.2968082  0.2968082  0.2968082          0 -0.04157294 -0.06564266 -0.003083038 0.07599732  0.1438768          0 
 0.2955277  0.2955277  0.2955277          0 -0.04551542 -0.06445293 -0.0003792569 0.07829218  0.1454722          0 
  0.294459   0.294459   0.294459          0 -0.04826782 -0.06381882 0.001806964 0.08034252  0.1465602          0 
 0.2931294  0.2931294  0.2931294          0 -0.0521506 -0.06232132 0.004528022 0.08246958  0.1480861          0 
 0.2916964  0.2916964  0.2916964          0 -0.05545317 -0.06116575 0.007129456 0.08481839   0.149582          0 
