         0          0          0          0          0   2.610619 -0.3071155  -1.311726  -1.369228  -1.093547 
         0          0          0          0          0   2.589676 -0.2853282  -1.314601   -1.42452  -1.131628 
         0          0          0          0          0   2.487381 -0.2515143  -1.380704  -1.349077  -1.084495 
         0          0          0          0          0   3.588952 -0.5416101  -1.913221  -1.866068  -1.510746 
         0          0          0          0          0   2.694474 -0.4714848  -1.445177  -1.367688  -1.134427 
         0          0          0          0          0   3.121362 -0.5661185  -1.652293  -1.703784  -1.275541 
         0          0          0          0          0   3.282208 -0.6570851  -1.758295  -1.737279  -1.365005 
         0          0          0          0          0   3.669832  -0.842527  -1.914684  -1.920414  -1.520574 
         0          0          0          0          0   3.459366 -0.7791004  -1.819069  -1.903939  -1.455003 
         0          0          0          0          0   3.533255 -0.7720355   -2.01673  -1.851038  -1.496003 
         0          0          0          0          0   3.252494 -0.7638853  -1.825963   -1.75012  -1.392965 
         0          0          0          0          0   4.170797  -1.045824  -2.357142  -2.186587  -1.800313 
         0          0          0          0   1.320468 -0.03984249  -0.499047 -0.5080405 -0.4062186          0 
         0          0          0          0   1.502744 -0.09261751 -0.5717449 -0.5740571 -0.4715516          0 
         0          0          0          0   1.670559 -0.08141397 -0.6536179 -0.6962289 -0.5753786          0 
         0          0          0          0   2.065032 -0.1022092 -0.8566201 -0.8771761 -0.6969029          0 
         0          0          0          0   1.672232 -0.09504119 -0.7026957 -0.7337754 -0.5939788          0 
         0          0          0          0   1.763886 -0.07977951 -0.7950461 -0.8104109 -0.6372672          0 
         0          0          0          0   2.079831 -0.2285402 -0.9027075 -0.8836335 -0.7333837          0 
         0          0          0          0   1.957293 -0.1112531 -0.9016468 -0.9527784 -0.7669121          0 
         0          0          0          0   2.000525 -0.2420506 -0.9071293 -0.9243639 -0.7101374          0 
         0          0          0          0   2.509567 -0.1373278  -1.225833  -1.286695  -1.064631          0 
         0          0          0          0   2.815782 -0.07090253  -1.448812  -1.573048  -1.177093          0 
         0          0          0          0   2.405184  -0.270093  -1.166415   -1.15904  -1.028292          0 
         0          0          0          0    2.45604 -0.1615474  -1.234699   -1.35957  -1.115095          0 
