-0.1371502 -0.1371502 -0.1371502          0  0.8878053  0.1770347 -0.1363781 -0.2497569 -0.2672545          0 
-0.1056223 -0.1056223 -0.1056223          0  0.7360709  0.1011449  -0.114717 -0.1994767 -0.2061554          0 
-0.0965204 -0.0965204 -0.0965204          0  0.7893172 0.06687321 -0.1396435 -0.2168477 -0.2101379          0 
-0.1014276 -0.1014276 -0.1014276          0  0.9480071 0.09464213 -0.1968931 -0.2800233 -0.2614499          0 
-0.07405492 -0.07405492 -0.07405492          0  0.8275182 0.06096299 -0.1885223 -0.2488257 -0.2289684          0 
-0.0654008 -0.0654008 -0.0654008          0  0.9103162 0.04510604 -0.2239654 -0.2793411 -0.2559134          0 
-0.05724914 -0.05724914 -0.05724914          0  0.9934008 0.03288258 -0.2651762 -0.3130639 -0.2762959          0 
-0.04380721 -0.04380721 -0.04380721          0  0.9715014 -0.0006067894 -0.2733194 -0.3006243 -0.2655293          0 
-0.02811422 -0.02811422 -0.02811422          0  0.9894678 -0.01655341 -0.2928017 -0.3216941  -0.274076          0 
-0.01213887 -0.01213887 -0.01213887          0  0.9610018 -0.02349166 -0.3012375 -0.3306681 -0.2691879          0 
0.005928976 0.005928976 0.005928976          0   1.072407 -0.04067499 -0.3591451 -0.3824697 -0.3079039          0 
0.02135515 0.02135515 0.02135515          0   1.167213 -0.04073722 -0.4191117 -0.4324758  -0.338954          0 
0.03640372 0.03640372 0.03640372          0   1.101994 -0.05459682 -0.4206106 -0.4135085 -0.3224894          0 
0.05774688 0.05774688 0.05774688          0   1.219442 -0.08421292 -0.4700272 -0.4677209 -0.3707218          0 
0.09358673 0.09358673 0.09358673          0    1.47066 -0.09297487 -0.5956678 -0.6001517 -0.4626261          0 
 0.1105005  0.1105005  0.1105005          0   1.545636 -0.1133899 -0.6454218  -0.636741 -0.4815852          0 
 0.1179144  0.1179144  0.1179144          0   1.353283 -0.08848215 -0.5945825 -0.5879415 -0.4360198          0 
 0.1426092  0.1426092  0.1426092          0   1.511241 -0.1448161 -0.6807702 -0.6412584 -0.4722238          0 
 0.1755144  0.1755144  0.1755144          0   1.659257 -0.1804143 -0.7513485  -0.712097 -0.5419409          0 
 0.1840369  0.1840369  0.1840369          0   1.575407 -0.1740839  -0.731693 -0.7142348 -0.5075064          0 
 0.2145234  0.2145234  0.2145234          0   1.717163 -0.2356811 -0.8070789 -0.7666154 -0.5513579          0 
  0.325439   0.325439   0.325439          0   2.163747 -0.1449011   -1.10987  -1.108254 -0.7770385          0 
 0.3296592  0.3296592  0.3296592          0    2.17768   -0.21822  -1.115037  -1.067543 -0.7658568          0 
 0.3160656  0.3160656  0.3160656          0   1.973335 -0.2546773 -0.9900988 -0.9430833 -0.7336726          0 
 0.3496656  0.3496656  0.3496656          0   2.043082 -0.2480597  -1.054578  -1.039484 -0.7499564          0 
