         0          0          0          0          0   2.122211  -0.250316  -1.057487  -1.133397 -0.9016057 
         0          0          0          0          0   1.960196 -0.2024385  -1.029456  -1.071742 -0.8564975 
         0          0          0          0          0   2.289252 -0.2546714  -1.260802  -1.239349 -0.9910631 
         0          0          0          0          0   2.541836 -0.4054066  -1.358269  -1.294531  -1.072324 
         0          0          0          0          0    2.25758 -0.3978203  -1.205049  -1.174901 -0.9409173 
         0          0          0          0          0   2.503842 -0.4622778  -1.332432  -1.357029  -1.029736 
         0          0          0          0          0   2.743595 -0.5751378  -1.462468  -1.437113  -1.138741 
         0          0          0          0          0   2.854702 -0.6538368  -1.477775  -1.529124  -1.187713 
         0          0          0          0          0   2.843312 -0.6297804  -1.541224  -1.537445   -1.19899 
         0          0          0          0          0   2.660679 -0.5957705  -1.504809  -1.406581  -1.126653 
         0          0          0          0          0   2.884719 -0.6775953  -1.629363  -1.551268  -1.248188 
         0          0          0          0          0   3.030508 -0.8057857  -1.697178  -1.564632  -1.279228 
         0          0          0          0   1.097871 -0.04551035 -0.4159156 -0.4185352 -0.3367127          0 
         0          0          0          0    1.21275 -0.06978956 -0.4625718 -0.4756045 -0.3931601          0 
         0          0          0          0   1.459208 -0.06980932 -0.5832676 -0.6125031 -0.4987095          0 
         0          0          0          0   1.532307 -0.08601494 -0.6308315 -0.6514419 -0.5243184          0 
         0          0          0          0   1.338463 -0.05973816 -0.5785413 -0.6030164 -0.4812034          0 
         0          0          0          0   1.494156 -0.1094619 -0.6618506 -0.6604883 -0.5276022          0 
         0          0          0          0   1.637726 -0.1369625 -0.7280459 -0.7353973 -0.6093029          0 
         0          0          0          0   1.552608 -0.1287522 -0.7072135 -0.7379498  -0.578465          0 
         0          0          0          0   1.691243  -0.182207  -0.779069 -0.7952275 -0.6343548          0 
         0          0          0          0   2.119895 -0.07078671  -1.062359  -1.143767 -0.8974506          0 
         0          0          0          0   2.134295 -0.1403651  -1.068297  -1.106961 -0.8893421          0 
         0          0          0          0   1.930861 -0.1783617 -0.9465913 -0.9818153 -0.8498989          0 
         0          0          0          0   1.995854 -0.1653203  -1.005824  -1.079652 -0.8791791          0 
